Language model created by QuickLM on Fri Apr 26 14:28:36 EDT 2013
Copyright (c) 1996-2010 Carnegie Mellon University and Alexander I. Rudnicky

The model is in standard ARPA format, designed by Doug Paul while he was at MITRE.

The code that was used to produce this language model is available in Open Source.
Please visit http://www.speech.cs.cmu.edu/tools/ for more information

The (fixed) discount mass is 0.5. The backoffs are computed using the ratio method.
This model based on a corpus of 7 sentences and 12 words

\data\
ngram 1=12
ngram 2=17
ngram 3=16

\1-grams:
-0.9611 </s> -0.3010
-0.9611 <s> -0.2507
-1.5051 CLOSE -0.2730
-1.2041 GRIPPER -0.2507
-1.5051 LEFT -0.2730
-1.8062 LOOK -0.2507
-1.5051 OPEN -0.2730
-1.5051 RECORDING -0.2507
-1.5051 RIGHT -0.2730
-1.8062 ROBOT -0.2942
-1.8062 START -0.2872
-1.8062 STOP -0.2872

\2-grams:
-0.8451 <s> CLOSE 0.0000
-0.8451 <s> OPEN 0.0000
-1.1461 <s> ROBOT 0.0000
-1.1461 <s> START 0.0000
-1.1461 <s> STOP 0.0000
-0.6021 CLOSE LEFT 0.0000
-0.6021 CLOSE RIGHT 0.0000
-0.3010 GRIPPER </s> -0.3010
-0.3010 LEFT GRIPPER 0.0000
-0.3010 LOOK </s> -0.3010
-0.6021 OPEN LEFT 0.0000
-0.6021 OPEN RIGHT 0.0000
-0.3010 RECORDING </s> -0.3010
-0.3010 RIGHT GRIPPER 0.0000
-0.3010 ROBOT LOOK 0.0000
-0.3010 START RECORDING 0.0000
-0.3010 STOP RECORDING 0.0000

\3-grams:
-0.6021 <s> CLOSE LEFT
-0.6021 <s> CLOSE RIGHT
-0.6021 <s> OPEN LEFT
-0.6021 <s> OPEN RIGHT
-0.3010 <s> ROBOT LOOK
-0.3010 <s> START RECORDING
-0.3010 <s> STOP RECORDING
-0.3010 CLOSE LEFT GRIPPER
-0.3010 CLOSE RIGHT GRIPPER
-0.3010 LEFT GRIPPER </s>
-0.3010 OPEN LEFT GRIPPER
-0.3010 OPEN RIGHT GRIPPER
-0.3010 RIGHT GRIPPER </s>
-0.3010 ROBOT LOOK </s>
-0.3010 START RECORDING </s>
-0.3010 STOP RECORDING </s>

\end\
